digraph Tree {
node [shape=box] ;
0 [label="9 <= 0.5\ngini = 0.4989\nsamples = 210\nvalue = [100, 110]"] ;
1 [label="8 <= 0.5\ngini = 0.2152\nsamples = 106\nvalue = [93, 13]"] ;
0 -> 1 [labeldistance=2.5, labelangle=45, headlabel="True"] ;
2 [label="7 <= 0.5\ngini = 0.0659\nsamples = 88\nvalue = [85, 3]"] ;
1 -> 2 ;
3 [label="gini = 0.0449\nsamples = 87\nvalue = [85, 2]"] ;
2 -> 3 ;
4 [label="gini = 0.0\nsamples = 1\nvalue = [0, 1]"] ;
2 -> 4 ;
5 [label="4 <= 0.5\ngini = 0.4938\nsamples = 18\nvalue = [8, 10]"] ;
1 -> 5 ;
6 [label="gini = 0.0\nsamples = 5\nvalue = [5, 0]"] ;
5 -> 6 ;
7 [label="gini = 0.355\nsamples = 13\nvalue = [3, 10]"] ;
5 -> 7 ;
8 [label="10 <= 0.5\ngini = 0.1256\nsamples = 104\nvalue = [7, 97]"] ;
0 -> 8 [labeldistance=2.5, labelangle=-45, headlabel="False"] ;
9 [label="2 <= 0.5\ngini = 0.2449\nsamples = 7\nvalue = [6, 1]"] ;
8 -> 9 ;
10 [label="gini = 0.0\nsamples = 6\nvalue = [6, 0]"] ;
9 -> 10 ;
11 [label="gini = 0.0\nsamples = 1\nvalue = [0, 1]"] ;
9 -> 11 ;
12 [label="4 <= 0.5\ngini = 0.0204\nsamples = 97\nvalue = [1, 96]"] ;
8 -> 12 ;
13 [label="gini = 0.1107\nsamples = 17\nvalue = [1, 16]"] ;
12 -> 13 ;
14 [label="gini = 0.0\nsamples = 80\nvalue = [0, 80]"] ;
12 -> 14 ;
}